digraph Tree {
0 [label="X[0] <= -0.2130\ngini = 0.5\nsamples = 108", shape="box"] ;
1 [label="X[1] <= -0.3621\ngini = 0.385633270321\nsamples = 46", shape="box"] ;
0 -> 1 ;
2 [label="X[1] <= -0.8632\ngini = 0.466392318244\nsamples = 27", shape="box"] ;
1 -> 2 ;
3 [label="gini = 0.0000\nsamples = 9\nvalue = [ 9.  0.]", shape="box"] ;
2 -> 3 ;
4 [label="X[2] <= 0.5941\ngini = 0.493827160494\nsamples = 18", shape="box"] ;
2 -> 4 ;
5 [label="X[1] <= -0.5429\ngini = 0.444444444444\nsamples = 12", shape="box"] ;
4 -> 5 ;
6 [label="gini = 0.0000\nsamples = 6\nvalue = [ 6.  0.]", shape="box"] ;
5 -> 6 ;
7 [label="X[1] <= -0.4442\ngini = 0.444444444444\nsamples = 6", shape="box"] ;
5 -> 7 ;
8 [label="gini = 0.0000\nsamples = 3\nvalue = [ 0.  3.]", shape="box"] ;
7 -> 8 ;
9 [label="X[0] <= -0.4045\ngini = 0.444444444444\nsamples = 3", shape="box"] ;
7 -> 9 ;
10 [label="gini = 0.0000\nsamples = 2\nvalue = [ 2.  0.]", shape="box"] ;
9 -> 10 ;
11 [label="gini = 0.0000\nsamples = 1\nvalue = [ 0.  1.]", shape="box"] ;
9 -> 11 ;
12 [label="gini = 0.0000\nsamples = 6\nvalue = [ 0.  6.]", shape="box"] ;
4 -> 12 ;
13 [label="X[1] <= 0.4334\ngini = 0.18836565097\nsamples = 19", shape="box"] ;
1 -> 13 ;
14 [label="X[1] <= 0.2598\ngini = 0.277777777778\nsamples = 12", shape="box"] ;
13 -> 14 ;
15 [label="X[0] <= -0.5014\ngini = 0.165289256198\nsamples = 11", shape="box"] ;
14 -> 15 ;
16 [label="gini = 0.0000\nsamples = 8\nvalue = [ 8.  0.]", shape="box"] ;
15 -> 16 ;
17 [label="X[2] <= 0.3090\ngini = 0.444444444444\nsamples = 3", shape="box"] ;
15 -> 17 ;
18 [label="gini = 0.0000\nsamples = 2\nvalue = [ 2.  0.]", shape="box"] ;
17 -> 18 ;
19 [label="gini = 0.0000\nsamples = 1\nvalue = [ 0.  1.]", shape="box"] ;
17 -> 19 ;
20 [label="gini = 0.0000\nsamples = 1\nvalue = [ 0.  1.]", shape="box"] ;
14 -> 20 ;
21 [label="gini = 0.0000\nsamples = 7\nvalue = [ 7.  0.]", shape="box"] ;
13 -> 21 ;
22 [label="X[2] <= -1.4559\ngini = 0.437044745057\nsamples = 62", shape="box"] ;
0 -> 22 ;
23 [label="gini = 0.0000\nsamples = 7\nvalue = [ 7.  0.]", shape="box"] ;
22 -> 23 ;
24 [label="X[1] <= -0.9438\ngini = 0.360991735537\nsamples = 55", shape="box"] ;
22 -> 24 ;
25 [label="gini = 0.0000\nsamples = 2\nvalue = [ 2.  0.]", shape="box"] ;
24 -> 25 ;
26 [label="X[1] <= -0.6980\ngini = 0.328942684229\nsamples = 53", shape="box"] ;
24 -> 26 ;
27 [label="gini = 0.0000\nsamples = 10\nvalue = [  0.  10.]", shape="box"] ;
26 -> 27 ;
28 [label="X[0] <= 1.5254\ngini = 0.380746349378\nsamples = 43", shape="box"] ;
26 -> 28 ;
29 [label="X[1] <= 0.6615\ngini = 0.437716262976\nsamples = 34", shape="box"] ;
28 -> 29 ;
30 [label="X[1] <= -0.0089\ngini = 0.384087791495\nsamples = 27", shape="box"] ;
29 -> 30 ;
31 [label="X[0] <= 0.1403\ngini = 0.465373961219\nsamples = 19", shape="box"] ;
30 -> 31 ;
32 [label="X[0] <= -0.1056\ngini = 0.18\nsamples = 10", shape="box"] ;
31 -> 32 ;
33 [label="X[0] <= -0.1389\ngini = 0.444444444444\nsamples = 3", shape="box"] ;
32 -> 33 ;
34 [label="gini = 0.0000\nsamples = 2\nvalue = [ 0.  2.]", shape="box"] ;
33 -> 34 ;
35 [label="gini = 0.0000\nsamples = 1\nvalue = [ 1.  0.]", shape="box"] ;
33 -> 35 ;
36 [label="gini = 0.0000\nsamples = 7\nvalue = [ 0.  7.]", shape="box"] ;
32 -> 36 ;
37 [label="X[2] <= 0.1160\ngini = 0.444444444444\nsamples = 9", shape="box"] ;
31 -> 37 ;
38 [label="gini = 0.0000\nsamples = 3\nvalue = [ 3.  0.]", shape="box"] ;
37 -> 38 ;
39 [label="X[0] <= 0.2517\ngini = 0.5\nsamples = 6", shape="box"] ;
37 -> 39 ;
40 [label="gini = 0.0000\nsamples = 2\nvalue = [ 2.  0.]", shape="box"] ;
39 -> 40 ;
41 [label="X[1] <= -0.6759\ngini = 0.375\nsamples = 4", shape="box"] ;
39 -> 41 ;
42 [label="gini = 0.0000\nsamples = 1\nvalue = [ 1.  0.]", shape="box"] ;
41 -> 42 ;
43 [label="gini = 0.0000\nsamples = 3\nvalue = [ 0.  3.]", shape="box"] ;
41 -> 43 ;
44 [label="gini = 0.0000\nsamples = 8\nvalue = [ 0.  8.]", shape="box"] ;
30 -> 44 ;
45 [label="X[2] <= 0.2073\ngini = 0.489795918367\nsamples = 7", shape="box"] ;
29 -> 45 ;
46 [label="X[0] <= 0.2077\ngini = 0.48\nsamples = 5", shape="box"] ;
45 -> 46 ;
47 [label="gini = 0.0000\nsamples = 2\nvalue = [ 2.  0.]", shape="box"] ;
46 -> 47 ;
48 [label="gini = 0.0000\nsamples = 3\nvalue = [ 0.  3.]", shape="box"] ;
46 -> 48 ;
49 [label="gini = 0.0000\nsamples = 2\nvalue = [ 2.  0.]", shape="box"] ;
45 -> 49 ;
50 [label="gini = 0.0000\nsamples = 9\nvalue = [ 0.  9.]", shape="box"] ;
28 -> 50 ;
}